digraph Tree {
node [shape=box, style="filled, rounded", color="black", fontname="helvetica"] ;
edge [fontname="helvetica"] ;
rankdir=LR ;
0 [label=<sens_11 &le; 47.655<br/>squared_error = 4744.361<br/>samples = 20631<br/>value = 107.808>, fillcolor="#f7d9c4"] ;
1 [label=<sens_9 &le; 9075.705<br/>squared_error = 3543.393<br/>samples = 14405<br/>value = 135.117>, fillcolor="#f5d0b5"] ;
0 -> 1 [labeldistance=2.5, labelangle=-45, headlabel="True"] ;
2 [label=<sens_11 &le; 47.385<br/>squared_error = 3307.657<br/>samples = 13089<br/>value = 141.76>, fillcolor="#f5ceb1"] ;
1 -> 2 ;
3 [label=<sens_11 &le; 47.245<br/>squared_error = 2993.365<br/>samples = 5937<br/>value = 162.019>, fillcolor="#f3c6a6"] ;
2 -> 3 ;
4 [label=<sens_9 &le; 9058.025<br/>squared_error = 2554.329<br/>samples = 2575<br/>value = 174.384>, fillcolor="#f2c29f"] ;
3 -> 4 ;
5 [label="(...)", fillcolor="#C0C0C0"] ;
4 -> 5 ;
1866 [label="(...)", fillcolor="#C0C0C0"] ;
4 -> 1866 ;
4993 [label=<sens_9 &le; 9063.455<br/>squared_error = 3122.836<br/>samples = 3362<br/>value = 152.548>, fillcolor="#f4caab"] ;
3 -> 4993 ;
4994 [label="(...)", fillcolor="#C0C0C0"] ;
4993 -> 4994 ;
9339 [label="(...)", fillcolor="#C0C0C0"] ;
4993 -> 9339 ;
11524 [label=<sens_4 &le; 1409.915<br/>squared_error = 2945.073<br/>samples = 7152<br/>value = 124.944>, fillcolor="#f6d3ba"] ;
2 -> 11524 ;
11525 [label=<sens_9 &le; 9064.365<br/>squared_error = 3004.061<br/>samples = 4713<br/>value = 134.395>, fillcolor="#f5d0b5"] ;
11524 -> 11525 ;
11526 [label="(...)", fillcolor="#C0C0C0"] ;
11525 -> 11526 ;
18633 [label="(...)", fillcolor="#C0C0C0"] ;
11525 -> 18633 ;
20654 [label=<sens_9 &le; 9060.855<br/>squared_error = 2324.964<br/>samples = 2439<br/>value = 106.681>, fillcolor="#f7dac4"] ;
11524 -> 20654 ;
20655 [label="(...)", fillcolor="#C0C0C0"] ;
20654 -> 20655 ;
23746 [label="(...)", fillcolor="#C0C0C0"] ;
20654 -> 23746 ;
25343 [label=<sens_9 &le; 9080.855<br/>squared_error = 1083.641<br/>samples = 1316<br/>value = 69.046>, fillcolor="#fae7d9"] ;
1 -> 25343 ;
25344 [label=<sens_12 &le; 521.935<br/>squared_error = 1396.223<br/>samples = 488<br/>value = 91.777>, fillcolor="#f8dfcd"] ;
25343 -> 25344 ;
25345 [label=<sens_7 &le; 553.475<br/>squared_error = 685.375<br/>samples = 316<br/>value = 77.965>, fillcolor="#f9e4d4"] ;
25344 -> 25345 ;
25346 [label="(...)", fillcolor="#C0C0C0"] ;
25345 -> 25346 ;
25625 [label="(...)", fillcolor="#C0C0C0"] ;
25345 -> 25625 ;
25926 [label=<sens_4 &le; 1398.18<br/>squared_error = 1707.872<br/>samples = 172<br/>value = 117.151>, fillcolor="#f7d6bf"] ;
25344 -> 25926 ;
25927 [label="(...)", fillcolor="#C0C0C0"] ;
25926 -> 25927 ;
26024 [label="(...)", fillcolor="#C0C0C0"] ;
25926 -> 26024 ;
26245 [label=<sens_9 &le; 9096.95<br/>squared_error = 415.404<br/>samples = 828<br/>value = 55.649>, fillcolor="#fbece0"] ;
25343 -> 26245 ;
26246 [label=<sens_12 &le; 521.445<br/>squared_error = 346.448<br/>samples = 534<br/>value = 64.277>, fillcolor="#fae9dc"] ;
26245 -> 26246 ;
26247 [label="(...)", fillcolor="#C0C0C0"] ;
26246 -> 26247 ;
26650 [label="(...)", fillcolor="#C0C0C0"] ;
26246 -> 26650 ;
27215 [label=<sens_9 &le; 9118.625<br/>squared_error = 159.799<br/>samples = 294<br/>value = 39.976>, fillcolor="#fcf1e9"] ;
26245 -> 27215 ;
27216 [label="(...)", fillcolor="#C0C0C0"] ;
27215 -> 27216 ;
27559 [label="(...)", fillcolor="#C0C0C0"] ;
27215 -> 27559 ;
27712 [label=<sens_4 &le; 1415.735<br/>squared_error = 1805.028<br/>samples = 6226<br/>value = 44.622>, fillcolor="#fcefe7"] ;
0 -> 27712 [labeldistance=2.5, labelangle=45, headlabel="False"] ;
27713 [label=<sens_9 &le; 9069.0<br/>squared_error = 2310.434<br/>samples = 2363<br/>value = 75.587>, fillcolor="#fae5d6"] ;
27712 -> 27713 ;
27714 [label=<sens_7 &le; 552.855<br/>squared_error = 2560.237<br/>samples = 1661<br/>value = 88.288>, fillcolor="#f9e0cf"] ;
27713 -> 27714 ;
27715 [label=<sens_12 &le; 521.025<br/>squared_error = 1522.261<br/>samples = 679<br/>value = 63.44>, fillcolor="#fae9dc"] ;
27714 -> 27715 ;
27716 [label="(...)", fillcolor="#C0C0C0"] ;
27715 -> 27716 ;
28515 [label="(...)", fillcolor="#C0C0C0"] ;
27715 -> 28515 ;
28962 [label=<sens_12 &le; 521.105<br/>squared_error = 2555.872<br/>samples = 982<br/>value = 105.468>, fillcolor="#f7dac5"] ;
27714 -> 28962 ;
28963 [label="(...)", fillcolor="#C0C0C0"] ;
28962 -> 28963 ;
29740 [label="(...)", fillcolor="#C0C0C0"] ;
28962 -> 29740 ;
30847 [label=<sens_14 &le; 8162.365<br/>squared_error = 434.528<br/>samples = 702<br/>value = 45.534>, fillcolor="#fcefe6"] ;
27713 -> 30847 ;
30848 [label=<sens_12 &le; 520.475<br/>squared_error = 443.257<br/>samples = 402<br/>value = 55.067>, fillcolor="#fbece1"] ;
30847 -> 30848 ;
30849 [label="(...)", fillcolor="#C0C0C0"] ;
30848 -> 30849 ;
30900 [label="(...)", fillcolor="#C0C0C0"] ;
30848 -> 30900 ;
31603 [label=<sens_9 &le; 9103.8<br/>squared_error = 137.876<br/>samples = 300<br/>value = 32.76>, fillcolor="#fdf4ed"] ;
30847 -> 31603 ;
31604 [label="(...)", fillcolor="#C0C0C0"] ;
31603 -> 31604 ;
31875 [label="(...)", fillcolor="#C0C0C0"] ;
31603 -> 31875 ;
32084 [label=<sens_11 &le; 47.865<br/>squared_error = 550.621<br/>samples = 3863<br/>value = 25.681>, fillcolor="#fdf6f1"] ;
27712 -> 32084 ;
32085 [label=<sens_9 &le; 9095.87<br/>squared_error = 703.403<br/>samples = 1426<br/>value = 42.504>, fillcolor="#fcf0e8"] ;
32084 -> 32085 ;
32086 [label=<sens_12 &le; 520.915<br/>squared_error = 739.718<br/>samples = 1105<br/>value = 48.182>, fillcolor="#fceee5"] ;
32085 -> 32086 ;
32087 [label="(...)", fillcolor="#C0C0C0"] ;
32086 -> 32087 ;
33378 [label="(...)", fillcolor="#C0C0C0"] ;
32086 -> 33378 ;
34119 [label=<sens_9 &le; 9122.54<br/>squared_error = 85.307<br/>samples = 321<br/>value = 22.956>, fillcolor="#fdf7f2"] ;
32085 -> 34119 ;
34120 [label="(...)", fillcolor="#C0C0C0"] ;
34119 -> 34120 ;
34437 [label="(...)", fillcolor="#C0C0C0"] ;
34119 -> 34437 ;
34608 [label=<sens_11 &le; 47.975<br/>squared_error = 198.741<br/>samples = 2437<br/>value = 15.838>, fillcolor="#fef9f6"] ;
32084 -> 34608 ;
34609 [label=<sens_9 &le; 9114.92<br/>squared_error = 256.688<br/>samples = 887<br/>value = 24.727>, fillcolor="#fdf6f1"] ;
34608 -> 34609 ;
34610 [label="(...)", fillcolor="#C0C0C0"] ;
34609 -> 34610 ;
35851 [label="(...)", fillcolor="#C0C0C0"] ;
34609 -> 35851 ;
36094 [label=<sens_4 &le; 1425.61<br/>squared_error = 94.484<br/>samples = 1550<br/>value = 10.751>, fillcolor="#fefbf9"] ;
34608 -> 36094 ;
36095 [label="(...)", fillcolor="#C0C0C0"] ;
36094 -> 36095 ;
37304 [label="(...)", fillcolor="#C0C0C0"] ;
36094 -> 37304 ;
}